svm_type c_svc
kernel_type rbf
gamma 0.125
nr_class 8
total_sv 353
rho -0.19065865228647164 -0.08534549798398998 -0.11919187229938355 -0.0792711035806634 -0.23454655032630578 -0.06702160929616707 -0.1121171461262644 0.074404563822272 0.14613801425966363 0.17776898858311913 -0.47133723200925287 0.04866004226077273 0.2472999956824141 0.2262747155814654 0.00888014771516751 -0.1550940972172734 -0.0013264243011748187 -0.13351444132346402 -0.058498182390886354 -0.14088954552476124 0.07399922376868756 0.08429582015491606 -0.21587337446324759 -0.09843455871976631 -0.04625820766574015 0.14772909556007935 0.17287841299091 0.10394104657297355
label 0 1 2 3 4 5 6 7
nr_sv 46 47 59 83 19 29 24 46
SV
0.0 0.08026774468965862 0.0 0.0 0.0 0.0 0.0 1:4.12 2:-0.75 3:5.47 4:10.71 5:-0.67 6:-0.38 7:-0.66 8:0.64 
1.0 0.0 0.0 0.2981941526957088 0.0 0.0 0.0 1:3.34 2:-1.02 3:5.37 4:10.06 5:-0.93 6:0.1 7:-0.44 8:0.54 
0.0 1.0 1.0 0.0 0.0 0.0 0.0 1:4.07 2:-0.75 3:6.26 4:10.48 5:-0.96 6:-0.28 7:-0.61 8:0.52 
0.93657823655326 0.0 0.0 0.0 0.0 0.0 0.0 1:3.43 2:-1.05 3:5.61 4:10.08 5:-1.04 6:-0.08 7:-0.38 8:0.74 
1.0 0.0 0.0 0.0 0.0 0.0 0.0 1:3.3 2:-1.05 3:4.13 4:10.54 5:-0.34 6:-0.15 7:-0.55 8:0.47 
0.0 1.0 0.0 0.0 0.0 0.0 0.0 1:3.97 2:-0.81 3:6.41 4:10.47 5:-1.06 6:-0.28 7:-0.63 8:0.49 
0.0 0.0 0.0 0.0 1.0 0.0 0.0 1:3.6 2:-0.9 3:5.64 4:10.05 5:-1.11 6:-0.37 7:-0.63 8:0.71 
1.0 0.0 0.0 0.0 0.0 0.0 0.0 1:3.63 2:-1.05 3:5.66 4:9.67 5:-0.99 6:-0.27 7:-0.62 8:0.56 
1.0 0.0 0.0 0.0 0.0 0.0 0.0 1:3.12 2:-1.05 3:4.16 4:10.58 5:-0.2 6:0.01 7:-0.35 8:0.69 
1.0 0.0 0.0 0.0 0.0 0.0 0.0 1:3.47 2:-1.08 3:4.1 4:10.46 5:-0.44 6:-0.23 7:-0.66 8:0.51 
0.0 0.0 1.0 0.0 0.0 0.0 0.0 1:3.38 2:-0.81 3:4.53 4:10.88 5:-0.41 6:-0.25 7:-0.53 8:0.54 
0.0 0.0 0.08514180722400462 0.0 0.0 0.0 0.0 1:3.88 2:-0.54 3:6.22 4:9.46 5:-1.07 6:-0.09 7:-0.73 8:0.49 
1.0 0.16682593297428247 0.43182947291472595 1.0 1.0 1.0 0.5598054526669883 1:3.17 2:-0.96 3:3.06 4:11.04 5:0.04 6:-0.18 7:-0.5 8:0.69 
1.0 0.7429360332098147 1.0 1.0 1.0 0.2649192595821086 0.3109078852212644 1:3.48 2:-0.63 3:6.2 4:8.88 5:-1.18 6:-0.12 7:-0.73 8:0.18 
0.0 1.0 1.0 0.0 0.0 0.0 0.0 1:3.65 2:-0.78 3:5.12 4:10.7 5:-0.28 6:-0.04 7:-0.48 8:0.52 
0.0 1.0 1.0 0.0 0.0 0.0 0.0 1:3.75 2:-0.75 3:5.37 4:10.82 5:-0.35 6:-0.15 7:-0.45 8:0.57 
0.0 1.0 1.0 0.0 0.0 0.0 0.0 1:4.21 2:-0.42 3:5.43 4:11.03 5:-0.45 6:-0.2 7:-0.49 8:0.76 
1.0 0.0 0.0 0.0 1.0 0.0 0.0 1:3.45 2:-0.78 3:5.3 4:9.82 5:-1.07 6:-0.32 7:-0.59 8:0.69 
1.0 1.0 1.0 0.0 0.0 0.849411080767785 1.0 1:3.24 2:-0.75 3:3.5 4:10.98 5:-0.02 6:-0.22 7:-0.56 8:0.51 
0.0 0.0 1.0 0.0 0.0 0.0 0.0 1:3.79 2:-0.87 3:6.15 4:9.81 5:-1.06 6:-0.08 7:-0.74 8:0.31 
0.0 0.0 0.0 0.0 1.0 0.0 0.0 1:3.46 2:-1.05 3:4.1 4:10.44 5:-0.44 6:-0.25 7:-0.63 8:0.61 
1.0 0.0 1.0 0.0 0.0 0.0 0.0 1:3.33 2:-0.93 3:3.59 4:10.78 5:-0.23 6:-0.17 7:-0.49 8:0.59 
1.0 0.0 1.0 0.0 0.0 0.0 0.0 1:3.21 2:-1.05 3:4.13 4:10.4 5:-0.3 6:-0.08 7:-0.44 8:0.52 
0.9576691577941847 0.0 1.0 0.30615555093925817 0.0 0.0 0.8884680503777644 1:3.48 2:-0.72 3:4.72 4:10.18 5:-0.73 6:0.0 7:-0.67 8:0.41 
1.0 0.0 0.0 0.0 0.0 0.0 0.0 1:3.31 2:-1.02 3:5.12 4:10.18 5:-0.83 6:0.08 7:-0.43 8:0.54 
0.0 1.0 0.0 0.0 0.0 0.0 0.0 1:4.07 2:-0.78 3:6.32 4:10.45 5:-0.94 6:-0.3 7:-0.62 8:0.51 
0.0 1.0 0.0 0.0 0.0 0.0 0.0 1:3.93 2:-0.66 3:4.5 4:10.74 5:-0.21 6:-0.26 7:-0.51 8:0.76 
1.0 0.0 0.0 0.0 0.0 0.0 0.0 1:3.28 2:-1.02 3:4.15 4:10.52 5:-0.39 6:-0.09 7:-0.4 8:0.58 
0.0 0.911081406651954 0.046177472313398395 1.0 0.0 0.00436719152614516 0.0 1:4.5 2:-1.29 3:7.48 4:9.25 5:-1.04 6:-0.02 7:-0.72 8:0.26 
1.0 0.0 0.0 0.0 0.013787959934037364 0.0 0.0 1:3.43 2:-1.17 3:5.23 4:9.68 5:-0.98 6:-0.04 7:-0.39 8:0.66 
1.0 0.0 0.0 0.0 0.0 0.0 0.0 1:3.12 2:-1.05 3:4.16 4:10.58 5:-0.2 6:0.01 7:-0.35 8:0.69 
1.0 1.0 1.0 0.0 1.0 0.0 1.0 1:3.24 2:-0.75 3:3.55 4:10.73 5:-0.26 6:-0.2 7:-0.58 8:0.52 
0.37924878456201144 0.0 0.0 0.0 0.0 0.0 0.0 1:3.37 2:-0.84 3:5.05 4:10.45 5:-0.68 6:-0.23 7:-0.63 8:0.52 
1.0 0.0 0.12212934527240298 0.610331097362307 0.0 0.0 0.0 1:3.21 2:-1.14 3:4.07 4:10.47 5:-0.19 6:-0.06 7:-0.44 8:0.5 
1.0 0.0 0.0 0.0 0.0 0.0 0.0 1:3.38 2:-1.05 3:5.49 4:10.02 5:-1.01 6:0.08 7:-0.46 8:0.59 
0.0 0.0 1.0 1.0 0.0 0.0 0.0 1:3.48 2:-0.78 3:4.72 4:10.21 5:-0.72 6:0.0 7:-0.66 8:0.39 
0.0 0.0 0.0 0.0 0.0 0.29977152652879707 0.20408707911803234 1:4.2 2:-1.02 3:8.21 4:10.02 5:-1.41 6:-0.38 7:-0.62 8:0.54 
0.0 1.0 0.305989689290523 0.0 0.0 0.39068450153881623 0.0 1:4.24 2:-0.39 3:5.65 4:11.06 5:-0.5 6:-0.28 7:-0.59 8:0.75 
0.0 0.6309181963990305 1.0 0.0 0.0 0.0 0.0 1:3.36 2:-0.81 3:4.44 4:10.82 5:-0.4 6:-0.24 7:-0.52 8:0.46 
0.0 0.0 0.07816674007618991 0.0 0.0 0.0 0.0 1:3.99 2:-0.6 3:7.18 4:9.4 5:-1.4 6:-0.32 7:-0.58 8:0.52 
1.0 0.0 0.0 0.0 1.0 0.0 0.0 1:3.37 2:-0.87 3:5.26 4:9.73 5:-1.05 6:-0.26 7:-0.57 8:0.64 
0.0 1.0 0.0 0.0 0.0 0.0 0.0 1:4.21 2:-0.42 3:5.49 4:11.0 5:-0.45 6:-0.25 7:-0.57 8:0.74 
1.0 0.0 0.0 0.0 0.0 0.0 0.0 1:3.44 2:-1.17 3:5.89 4:9.87 5:-1.04 6:-0.13 7:-0.46 8:0.63 
1.0 1.0 1.0 0.0 0.0 0.0 0.8333038965120064 1:3.31 2:-0.9 3:4.12 4:10.75 5:-0.38 6:-0.22 7:-0.51 8:0.42 
0.05005391354679024 0.0 0.0 0.0 0.7478155073839537 0.0 0.0 1:3.23 2:-0.9 3:3.36 4:10.97 5:0.03 6:-0.18 7:-0.51 8:0.71 
0.043401602801816624 1.0 1.0 0.3793473515128182 0.22556535540141107 0.480224017329653 0.4901814630464052 1:4.41 2:0.12 3:8.33 4:9.38 5:-1.45 6:-0.41 7:-0.67 8:0.53 
-0.0 0.0 0.0 0.0 0.19209546505528424 0.0 0.0 1:2.25 2:-1.23 3:4.0 4:9.62 5:-1.17 6:-0.23 7:-0.68 8:0.54 
-1.0 0.0 0.054671884228733425 0.0 0.0 0.0 0.0 1:2.56 2:-0.66 3:3.73 4:10.32 5:-0.39 6:-0.1 7:-0.23 8:0.75 
-0.0 0.0 0.0 0.0 0.0 0.0 1.0 1:2.01 2:-0.84 3:3.14 4:10.13 5:-0.83 6:-0.13 7:-0.51 8:0.05 
-1.0 0.0 1.0 0.0 0.0 0.0 0.0 1:2.87 2:-1.26 3:3.46 4:10.47 5:-0.33 6:-0.12 7:-0.57 8:0.23 
-0.0 0.0 0.0 0.810514975616967 0.0 0.765401445265888 1.0 1:2.0 2:-0.84 3:3.14 4:10.12 5:-0.82 6:-0.15 7:-0.56 8:-0.02 
-0.0 0.0 0.0 0.0 0.5594404822595114 0.0 0.0 1:2.37 2:-0.93 3:3.23 4:10.35 5:-0.12 6:-0.27 7:-0.6 8:0.32 
-1.0 0.0 0.0 0.0 0.0 0.0 0.0 1:3.02 2:-1.23 3:4.55 4:10.28 5:-0.85 6:-0.35 7:-0.6 8:0.51 
-0.0 0.0 0.0 0.0 0.0 0.749516361248366 0.6067541864735979 1:1.81 2:-1.17 3:2.43 4:10.43 5:-0.49 6:-0.21 7:-0.53 8:0.53 
-1.0 0.0 1.0 0.0 1.0 0.0 0.0 1:2.69 2:-0.75 3:3.64 4:10.45 5:-0.41 6:-0.32 7:-0.43 8:0.59 
-1.0 0.9111369177107059 1.0 0.0 0.0 0.0 0.49578864849720033 1:2.75 2:-0.84 3:4.08 4:10.49 5:-0.71 6:-0.27 7:-0.19 8:0.34 
-0.0 0.0 1.0 1.0 0.0 0.0 1.0 1:2.13 2:-0.54 3:3.51 4:9.81 5:-0.58 6:0.03 7:-0.34 8:-0.11 
-0.0 0.0 0.0 0.0 0.45239896589436945 0.0 0.0 1:2.01 2:-1.11 3:2.63 4:10.05 5:-0.1 6:-0.24 7:-0.6 8:0.33 
-1.0 0.0 0.0 0.0 0.0 0.0 0.0 1:2.75 2:-0.93 3:4.53 4:9.92 5:-0.89 6:-0.09 7:-0.51 8:0.29 
-0.0 0.0 0.0 0.9518473545850563 0.0 0.0 0.0 1:2.39 2:-0.93 3:3.89 4:10.1 5:-0.78 6:0.05 7:-0.55 8:0.2 
-1.0 0.0 0.0 0.0 1.0 0.0 0.0 1:3.1 2:-1.08 3:5.54 4:9.71 5:-1.3 6:-0.28 7:-0.63 8:0.47 
-0.0 0.0 0.0 0.5234073841254825 0.0 0.0 0.0 1:1.82 2:-1.02 3:2.55 4:10.15 5:-0.55 6:0.04 7:-0.44 8:0.37 
-1.0 0.8948002857516677 1.0 0.17190245719112532 0.0 0.0 0.7212835518292116 1:3.07 2:-1.26 3:5.43 4:10.02 5:-1.11 6:-0.24 7:-0.61 8:0.34 
-1.0 1.0 1.0 0.8322401663466011 0.0 0.010778932799982035 0.0 1:3.49 2:-0.78 3:4.42 4:9.81 5:0.61 6:0.08 7:-0.3 8:0.71 
-1.0 0.0 0.0 0.0 1.0 0.0 0.0 1:3.05 2:-1.05 3:5.38 4:9.75 5:-1.24 6:-0.3 7:-0.65 8:0.47 
-0.36695169525806315 0.0 0.21548184826395017 0.0 0.0 0.0 0.0 1:2.6 2:-0.99 3:3.98 4:10.39 5:-0.66 6:-0.23 7:-0.43 8:0.4 
-0.0 0.0 0.49552850747876737 0.0 0.0 0.0 0.0 1:2.15 2:-0.66 3:3.34 4:9.93 5:-0.5 6:-0.17 7:-0.29 8:0.15 
-1.0 0.0 0.0 0.0 0.18159965189385155 0.0 0.0 1:3.08 2:-1.2 3:5.32 4:10.09 5:-1.05 6:-0.33 7:-0.63 8:0.52 
-0.0 0.0 0.0 0.0 0.0 0.0 1.0 1:2.01 2:-0.9 3:3.29 4:10.01 5:-0.95 6:-0.2 7:-0.47 8:-0.01 
-0.0 0.0 0.0 0.0 0.0 0.0 1.0 1:2.39 2:-0.72 3:4.11 4:9.95 5:-0.91 6:-0.01 7:-0.58 8:0.2 
-1.0 1.0 1.0 0.015424961196552369 0.0 1.0 1.0 1:2.87 2:-0.78 3:2.97 4:10.57 5:0.15 6:-0.27 7:-0.22 8:0.22 
-0.0 0.0 0.0 0.0 1.0 0.0 1.0 1:2.07 2:-0.66 3:3.47 4:9.97 5:-1.24 6:-0.31 7:-0.66 8:0.44 
-0.0 0.0 1.0 0.0 0.0 0.0 0.0 1:2.62 2:-0.81 3:4.12 4:10.23 5:-0.85 6:-0.21 7:-0.17 8:0.18 
-1.0 0.9269631539821398 0.1948585053863204 0.0 1.0 0.0 0.0 1:2.6 2:-0.84 3:2.72 4:10.35 5:0.48 6:-0.24 7:-0.42 8:0.52 
-1.0 1.0 1.0 0.0 0.0 0.0 0.0 1:3.12 2:-0.81 3:4.87 4:10.24 5:-0.67 6:-0.29 7:-0.3 8:0.39 
-0.0 0.0 0.0 0.0 1.0 0.0 0.0 1:2.3 2:-1.23 3:4.35 4:9.95 5:-1.26 6:-0.34 7:-0.63 8:0.52 
-0.0 0.0 0.0 0.0 1.0 0.0 0.0 1:2.03 2:-0.72 3:3.39 4:9.93 5:-1.24 6:-0.4 7:-0.67 8:0.56 
-1.0 0.0 0.0 0.0 0.0 0.0 0.0 1:3.05 2:-1.2 3:5.08 4:10.19 5:-0.97 6:-0.34 7:-0.62 8:0.51 
-1.0 0.0 0.0 0.0 1.0 0.0 0.0 1:2.78 2:-0.87 3:4.99 4:9.83 5:-1.13 6:-0.3 7:-0.66 8:0.47 
-0.0 0.0 0.0 0.0 1.0 0.0 0.0 1:1.99 2:-0.6 3:3.23 4:9.83 5:-1.11 6:-0.24 7:-0.57 8:0.65 
-0.0 0.0 0.0 0.0 1.0 0.0 0.0 1:2.06 2:-0.9 3:3.53 4:10.02 5:-1.22 6:-0.36 7:-0.68 8:0.56 
-1.0 0.0 0.0 0.0 0.0 0.0 0.0 1:2.89 2:-1.23 3:4.43 4:10.32 5:-0.78 6:-0.24 7:-0.6 8:0.34 
-0.0 0.0 0.0 0.0 1.0 0.0 0.0 1:1.99 2:-0.6 3:3.23 4:9.83 5:-1.11 6:-0.24 7:-0.57 8:0.65 
-1.0 0.0 0.0 0.0 0.0 0.0 0.0 1:2.87 2:-1.2 3:4.25 4:10.37 5:-0.66 6:-0.25 7:-0.6 8:0.34 
-1.0 0.0 1.0 0.0 1.0 0.0 0.0 1:2.57 2:-0.75 3:3.05 4:10.62 5:-0.07 6:-0.23 7:-0.38 8:0.57 
-1.0 0.0 0.587570694783437 0.5684009323747182 1.0 0.6631978786390053 0.0 1:3.1 2:-1.08 3:5.54 4:9.71 5:-1.3 6:-0.28 7:-0.63 8:0.47 
-0.0 0.0 0.0 1.0 0.0 0.0 0.0 1:2.06 2:-1.11 3:2.52 4:10.16 5:-0.08 6:-0.12 7:-0.6 8:0.2 
-0.0 0.0 0.0 0.0 0.0 0.0 1.0 1:1.94 2:-0.87 3:2.94 4:9.96 5:-0.9 6:-0.24 7:-0.49 8:0.11 
-0.0 0.0 0.0 0.0 0.0 0.0 1.0 1:2.0 2:-0.84 3:3.32 4:10.05 5:-0.95 6:-0.17 7:-0.57 8:0.15 
-1.0 0.0 0.0 0.0 0.0 0.0 0.0 1:2.83 2:-1.17 3:4.97 4:10.08 5:-1.2 6:-0.27 7:-0.59 8:0.48 
-1.0 1.0 1.0 1.0 0.0 0.0 0.13136031379422067 1:3.1 2:-0.99 3:5.39 4:9.73 5:-1.27 6:-0.21 7:-0.61 8:0.32 
-0.0 0.0 0.0 0.0 1.0 0.0 0.0 1:2.48 2:-0.78 3:3.59 4:9.77 5:-0.98 6:-0.33 7:-0.71 8:0.5 
-1.0 0.0 0.0 0.0 1.0 0.0 0.0 1:3.0 2:-1.17 3:4.66 4:9.88 5:-0.69 6:-0.24 7:-0.47 8:0.65 
-0.0 -0.0 0.0 0.0 0.0 0.05198558501218162 0.0 1:4.21 2:-0.3 3:5.65 4:11.75 5:-0.71 6:-0.28 7:-0.23 8:-0.08 
-1.0 -0.0 1.0 0.4906408071005032 0.0 0.0 0.0 1:4.29 2:-0.3 3:6.1 4:10.14 5:-0.86 6:-0.06 7:-0.27 8:-0.13 
-0.0 -0.0 1.0 0.0 0.0 0.0 0.0 1:4.02 2:-0.27 3:3.69 4:11.58 5:-0.05 6:-0.07 7:-0.31 8:-0.1 
-0.0 -0.0 1.0 0.0 0.0 0.0 0.0 1:4.14 2:-0.42 3:4.61 4:10.65 5:-0.01 6:-0.27 7:-0.18 8:-0.23 
-1.0 -0.0 1.0 0.21653178626380287 0.0 0.0 1.0 1:3.93 2:-0.42 3:4.02 4:11.32 5:-0.37 6:-0.1 7:-0.33 8:-0.18 
-0.0 -0.0 1.0 0.0 0.0 0.0 0.0 1:3.94 2:-0.3 3:5.61 4:10.65 5:-0.48 6:0.01 7:-0.35 8:-0.15 
-0.0 -0.0 1.0 0.0 0.0 0.0 0.0 1:3.93 2:0.21 3:4.67 4:10.73 5:-0.36 6:-0.04 7:-0.42 8:-0.4 
-0.0 -0.0 1.0 0.0 0.0 0.0 0.0 1:3.75 2:0.33 3:4.27 4:11.02 5:0.13 6:-0.15 7:-0.39 8:-0.31 
-1.0 -1.0 1.0 0.0 1.0 0.0 0.2610647891667689 1:4.09 2:-0.15 3:5.34 4:10.13 5:-0.8 6:-0.32 7:-0.3 8:-0.09 
-0.38122726724589134 -0.0 0.0 0.0 0.0 0.0 0.0 1:4.8 2:-0.6 3:7.11 4:10.78 5:-1.0 6:-0.32 7:-0.3 8:-0.22 
-0.0 -0.0 1.0 0.0 0.0 0.0 0.0 1:3.75 2:-0.39 3:4.22 4:11.33 5:0.08 6:-0.08 7:-0.35 8:-0.3 
-0.0 -0.0 1.0 0.0 0.0 0.0 0.0 1:4.03 2:-0.3 3:3.77 4:11.61 5:-0.07 6:-0.09 7:-0.3 8:-0.11 
-0.0 -0.0 1.0 0.0 0.5054771376156432 0.0 0.0 1:3.85 2:0.06 3:3.79 4:10.91 5:-0.17 6:-0.21 7:-0.14 8:-0.06 
-0.0 -0.0 1.0 0.0 0.0 0.0 0.0 1:4.37 2:-0.03 3:5.42 4:10.48 5:-0.77 6:-0.31 7:-0.17 8:-0.11 
-0.0 -0.0 1.0 0.0 0.0 0.0 0.0 1:3.9 2:0.03 3:5.54 4:10.46 5:-0.36 6:-0.06 7:-0.35 8:-0.18 
-1.0 -0.0 0.0 0.0 0.0 0.0 0.0 1:4.49 2:-0.72 3:5.48 4:10.61 5:-0.76 6:-0.21 7:-0.21 8:-0.05 
-1.0 -1.0 1.0 0.0 0.0 0.0 0.0 1:3.88 2:-0.72 3:4.63 4:11.16 5:-0.17 6:-0.06 7:-0.11 8:-0.03 
-0.0 -1.0 1.0 1.0 0.0 0.0 0.6401443761516554 1:3.53 2:-0.03 3:4.33 4:10.32 5:0.04 6:0.08 7:-0.27 8:-0.17 
-0.0 -0.0 1.0 0.0 0.0 0.0 0.0 1:4.0 2:0.09 3:4.55 4:10.57 5:-0.32 6:-0.38 7:-0.34 8:-0.12 
-1.0 -0.0 1.0 0.0 0.0 0.0 0.0 1:4.49 2:-0.33 3:6.23 4:10.56 5:-1.0 6:-0.32 7:-0.23 8:0.02 
-0.4758106854890107 -0.0 0.0 0.0 0.0 0.0 0.0 1:4.89 2:-0.39 3:6.32 4:10.04 5:-0.37 6:-0.01 7:-0.37 8:-0.01 
-0.0 -0.0 1.0 0.0 0.0 0.0 0.3509115994145762 1:3.82 2:0.27 3:4.64 4:10.82 5:-0.31 6:-0.05 7:-0.42 8:-0.39 
-0.22581851805892084 -0.0 1.0 0.0 0.0 0.0 0.0 1:4.08 2:-0.39 3:3.98 4:10.95 5:-0.05 6:-0.11 7:-0.35 8:-0.12 
-0.0 -0.0 1.0 0.0 0.0 0.0 0.0 1:3.9 2:-0.27 3:5.38 4:10.84 5:-0.35 6:-0.1 7:-0.15 8:-0.02 
-1.0 -1.0 1.0 1.0 0.38559250689634106 0.0 0.0 1:4.34 2:-0.39 3:6.36 4:9.94 5:-0.9 6:-0.14 7:-0.32 8:0.06 
-1.0 -0.0 1.0 0.0 0.0 0.0 0.0 1:3.8 2:-0.69 3:4.96 4:11.57 5:0.1 6:-0.05 7:-0.15 8:-0.1 
-0.0 -0.0 1.0 0.0 0.0 0.0 0.0 1:4.03 2:-0.3 3:3.77 4:11.61 5:-0.07 6:-0.09 7:-0.3 8:-0.11 
-0.0 -0.0 1.0 0.0 0.0 0.0 0.0 1:3.97 2:-0.12 3:4.47 4:10.72 5:-0.27 6:-0.35 7:-0.35 8:-0.12 
-1.0 -0.14588047918714364 0.0 0.4097085728797449 0.38198543997921786 0.5925618264943482 0.4636054023017319 1:5.14 2:0.09 3:7.74 4:10.97 5:-1.06 6:-0.29 7:-0.35 8:-0.04 
-0.0 -0.0 0.0 0.0 0.0 0.014759565392225607 0.0 1:4.66 2:0.0 3:7.09 4:11.84 5:-0.74 6:-0.31 7:-0.26 8:-0.04 
-0.4809697094757763 -0.0 1.0 0.0 0.0 0.0 0.0 1:3.8 2:-0.66 3:4.96 4:11.6 5:0.15 6:-0.05 7:-0.15 8:-0.1 
-0.0 -0.0 1.0 0.0 0.0 0.0 0.0 1:4.02 2:-0.24 3:3.69 4:11.56 5:-0.05 6:-0.06 7:-0.32 8:-0.1 
-0.0 -0.0 1.0 0.0 0.0 0.0 0.0 1:4.04 2:-0.42 3:3.72 4:10.93 5:0.35 6:-0.26 7:-0.17 8:-0.19 
-0.0 -0.0 1.0 0.0 0.0 0.0 0.0 1:3.89 2:-0.15 3:4.74 4:10.82 5:0.01 6:-0.09 7:-0.16 8:-0.16 
-0.0 -0.0 1.0 0.0 0.0 0.0 0.0 1:4.07 2:0.0 3:4.5 4:11.22 5:-0.17 6:-0.22 7:-0.19 8:-0.01 
-0.0 -0.0 1.0 0.0 0.0 0.0 0.0 1:4.47 2:0.09 3:6.15 4:10.32 5:-0.98 6:-0.2 7:-0.32 8:-0.04 
-0.0 -0.0 1.0 0.0 0.0 0.0 0.0 1:4.32 2:-0.15 3:5.42 4:10.36 5:-0.73 6:-0.22 7:-0.37 8:-0.18 
-0.8298123800574789 -0.0 1.0 0.0 0.0 0.0 0.0 1:3.94 2:-0.33 3:5.61 4:10.71 5:-0.47 6:0.02 7:-0.34 8:-0.14 
-1.0 -1.0 1.0 1.0 1.0 1.0 0.9074813970834468 1:3.08 2:0.03 3:3.64 4:10.71 5:0.76 6:0.17 7:-0.28 8:-0.22 
-0.0 -0.0 1.0 0.0 0.0 0.0 0.0 1:4.35 2:-0.21 3:5.35 4:10.55 5:-0.76 6:-0.31 7:-0.16 8:-0.11 
-1.0 -0.41734634851921715 0.4407078513396312 0.0 0.0 0.0 0.0 1:4.19 2:-0.75 3:4.17 4:11.18 5:-0.18 6:-0.17 7:-0.29 8:-0.13 
-0.0 -0.0 1.0 0.0 0.0 0.0 0.0 1:3.67 2:0.24 3:4.5 4:10.67 5:-0.15 6:-0.07 7:-0.22 8:-0.01 
-0.0 -0.0 1.0 0.0 0.0 0.6645466184214668 1.0 1:3.6 2:0.39 3:4.21 4:11.14 5:-0.1 6:-0.02 7:-0.48 8:-0.35 
-0.7912538326380465 -1.0 1.0 0.8202685184426761 0.18891708163304863 0.20705701127465442 1.0 1:3.14 2:0.09 3:3.75 4:10.77 5:0.53 6:0.13 7:-0.31 8:-0.23 
-0.0 -0.0 1.0 0.0 0.0 0.0 0.0 1:3.87 2:0.6 3:5.04 4:10.78 5:-0.48 6:-0.14 7:-0.34 8:-0.11 
-0.0 -0.0 1.0 0.0 0.0 0.0 0.0 1:4.44 2:0.09 3:6.15 4:10.3 5:-0.99 6:-0.24 7:-0.29 8:-0.03 
-0.0 -0.0 1.0 0.0 0.0 0.0 0.0 1:4.13 2:-0.6 3:5.47 4:11.46 5:-0.61 6:-0.22 7:-0.23 8:-0.14 
-1.0 -0.0 1.0 0.0 0.0 0.0 0.0 1:4.22 2:-0.24 3:5.42 4:10.25 5:-0.81 6:-0.35 7:-0.33 8:-0.08 
-0.0 -0.0 1.0 0.0 0.0 0.0 0.0 1:4.09 2:0.15 3:5.41 4:11.34 5:-0.53 6:-0.27 7:-0.24 8:-0.06 
-0.0 -0.0 1.0 0.0 0.025995187575997086 1.0 0.0 1:3.74 2:-0.33 3:3.81 4:11.99 5:0.15 6:-0.17 7:-0.28 8:-0.3 
-0.0 -0.0 0.0 0.0 0.0 0.5393213612865695 0.0 1:4.61 2:0.03 3:6.55 4:12.11 5:-0.42 6:-0.47 7:-0.17 8:-0.13 
-0.0 -0.165569048861972 1.0 0.0 0.0 0.0 0.0 1:3.92 2:-0.45 3:4.63 4:10.73 5:-0.27 6:-0.29 7:-0.25 8:-0.18 
-0.0 -0.0 1.0 0.0 0.0 0.0 0.0 1:3.85 2:-0.6 3:4.42 4:11.21 5:0.24 6:-0.05 7:-0.12 8:-0.1 
-0.0 -0.0 1.0 0.0 0.0 0.0 0.0 1:3.82 2:-0.06 3:4.38 4:10.68 5:-0.18 6:-0.21 7:-0.13 8:-0.1 
-0.0 -0.0 1.0 0.0 0.0 0.0 0.0 1:4.44 2:-0.51 3:6.62 4:11.06 5:-0.91 6:-0.38 7:-0.09 8:-0.14 
-0.34713692095961607 -0.004104480876180573 0.7540222384727576 0.0 0.0 0.0 0.17739606259992785 1:4.61 2:-0.51 3:7.3 4:11.26 5:-1.07 6:-0.46 7:-0.09 8:-0.16 
-0.0 -0.0 1.0 0.0 0.0 0.0 0.0 1:3.75 2:0.21 3:4.27 4:11.09 5:0.13 6:-0.13 7:-0.39 8:-0.3 
-0.0 -0.0 1.0 0.0 0.0 0.0 0.0 1:3.87 2:0.6 3:5.04 4:10.78 5:-0.48 6:-0.14 7:-0.34 8:-0.11 
-0.0 -0.0 0.24330163617389755 0.0 0.0 0.0 0.0 1:4.18 2:0.18 3:5.48 4:10.48 5:-0.39 6:-0.16 7:-0.36 8:-0.1 
-0.8199643085348037 -0.0 -0.0 0.0 0.0 0.0 0.0 1:3.84 2:-0.09 3:5.98 4:9.83 5:-1.13 6:-0.29 7:-0.09 8:-0.18 
-0.0 -0.0 -1.0 0.0 0.0 0.0 0.0 1:3.61 2:-0.42 3:4.73 4:11.52 5:-0.56 6:-0.37 7:0.01 8:-0.12 
-0.0 -0.0 -1.0 0.0 0.0 0.0 0.0 1:3.91 2:-0.03 3:5.03 4:9.91 5:-0.62 6:-0.1 7:-0.17 8:-0.27 
-0.0 -1.0 -0.0 0.0 0.0 0.0 0.0 1:3.04 2:-0.69 3:3.93 4:10.95 5:-0.68 6:-0.17 7:0.09 8:-0.1 
-0.0 -0.0 -1.0 0.0 0.0 0.0 0.0 1:4.09 2:-0.63 3:4.99 4:11.18 5:-0.42 6:-0.29 7:-0.19 8:-0.34 
-1.0 -0.4515191476403918 -0.0 0.0 0.0 0.0 0.0 1:3.09 2:-0.78 3:3.95 4:11.03 5:0.16 6:-0.33 7:-0.08 8:-0.21 
-0.0 -0.0 -1.0 0.0 0.0 0.0 0.0 1:3.88 2:0.06 3:5.86 4:10.09 5:-0.96 6:-0.1 7:-0.17 8:-0.21 
-0.0 -0.0 -1.0 0.0 0.0 0.0 0.0 1:3.57 2:-0.09 3:4.52 4:11.27 5:-0.5 6:-0.02 7:-0.36 8:-0.3 
-0.0 -0.0 -0.0 0.0 0.0 0.0 1.0 1:2.83 2:0.48 3:4.32 4:10.31 5:-0.43 6:-0.17 7:-0.29 8:-0.23 
-0.0 -0.0 -1.0 0.0 0.0 0.0 0.0 1:3.72 2:0.15 3:4.25 4:11.12 5:0.2 6:-0.28 7:-0.07 8:-0.07 
-1.0 -1.0 -0.0 0.0 0.054285668425520996 0.0 0.0 1:3.3 2:-0.27 3:4.22 4:9.91 5:-0.09 6:-0.27 7:-0.07 8:0.02 
-0.0 -0.0 -1.0 0.0 0.0 0.0 0.0 1:3.66 2:0.51 3:5.54 4:10.49 5:-0.89 6:0.43 7:-0.35 8:-0.14 
-0.0 -0.0 -1.0 0.0 0.0 0.0 0.0 1:3.62 2:-0.63 3:4.62 4:10.88 5:-0.36 6:-0.19 7:-0.17 8:-0.21 
-0.615778941753476 -0.39528252317729395 -0.0 0.0 0.0 0.0 0.0 1:3.61 2:-0.18 3:5.0 4:9.72 5:-0.58 6:-0.08 7:-0.18 8:-0.05 
-0.0 -0.0 -0.18556205610509444 0.0 0.0 0.0 0.0 1:3.73 2:-0.3 3:4.78 4:10.38 5:-0.48 6:-0.22 7:-0.01 8:-0.04 
-0.0 -0.0 -1.0 0.0 0.0 0.0 0.0 1:3.89 2:0.06 3:6.2 4:10.57 5:-1.06 6:-0.5 7:-0.02 8:-0.18 
-0.36984805040120744 -0.0 -1.0 0.0 0.0 0.0 0.0 1:4.17 2:-0.69 3:5.73 4:11.13 5:-0.58 6:-0.32 7:-0.18 8:-0.33 
-0.8733169783615579 -0.0 -1.0 0.0 0.0 0.0 0.0 1:3.64 2:-0.36 3:4.42 4:11.01 5:-0.28 6:-0.21 7:-0.13 8:0.0 
-0.0 -0.0 -1.0 0.0 0.0 0.0 0.0 1:3.32 2:-0.54 3:3.71 4:11.59 5:0.16 6:-0.31 7:-0.03 8:-0.23 
-0.0 -0.0 -1.0 0.0 0.0 0.0 0.0 1:3.57 2:-0.45 3:4.39 4:10.93 5:-0.22 6:-0.07 7:-0.05 8:-0.05 
-0.0 -1.0 -0.0 0.0 0.0 0.0 1.0 1:3.06 2:-0.75 3:3.74 4:10.9 5:-0.75 6:-0.15 7:0.12 8:-0.12 
-0.0 -1.0 -0.0 0.0 0.0 0.0 0.0 1:3.23 2:-0.63 3:4.37 4:10.58 5:-0.65 6:-0.33 7:-0.06 8:-0.19 
-0.0 -0.0 -0.0 0.0 0.0 0.0 0.57670230234239 1:2.82 2:0.33 3:3.75 4:10.6 5:0.28 6:0.1 7:-0.35 8:-0.25 
-0.0 -0.0 -1.0 0.0 0.0 0.0 0.0 1:3.9 2:-0.15 3:4.78 4:10.62 5:-0.77 6:-0.43 7:-0.18 8:-0.1 
-1.0 -0.0 -1.0 0.0 0.0 0.0 0.0 1:4.0 2:-0.81 3:4.76 4:10.32 5:-0.61 6:-0.46 7:0.06 8:-0.09 
-0.0 -0.0 -1.0 0.0 0.0 0.0 0.0 1:3.43 2:-0.45 3:4.07 4:11.27 5:0.12 6:-0.27 7:0.0 8:-0.28 
-0.0 -0.0 -0.4018661062439975 0.0 0.0 0.0 0.0 1:3.43 2:-0.15 3:4.69 4:11.02 5:-0.38 6:-0.27 7:-0.25 8:-0.15 
-0.0 -0.0 -1.0 0.0 0.0 0.0 0.0 1:3.33 2:-0.21 3:3.68 4:10.96 5:0.5 6:0.03 7:-0.13 8:-0.09 
-1.0 -1.0 -0.0 1.0 0.0 0.0 0.0 1:3.63 2:-0.18 3:5.0 4:9.7 5:-0.61 6:-0.08 7:-0.22 8:-0.06 
-0.0 -0.0 -1.0 0.0 0.0 0.0 0.0 1:3.56 2:-0.39 3:4.05 4:11.19 5:-0.17 6:0.15 7:-0.34 8:-0.21 
-0.0 -0.0 -0.0 0.0 0.0 0.0 1.0 1:2.86 2:-0.21 3:3.81 4:11.07 5:-0.16 6:-0.13 7:-0.26 8:-0.26 
-1.0 -0.0 -0.0 0.5460237907313007 0.0 0.0 0.0 1:3.26 2:-0.6 3:3.84 4:10.83 5:-0.04 6:0.13 7:-0.26 8:-0.2 
-0.0 -0.0 -0.0 0.0 0.0 0.6732588482795007 0.0 1:3.44 2:-0.12 3:3.35 4:11.34 5:-0.23 6:-0.4 7:-0.08 8:-0.19 
-0.0 -0.446193794105794 -0.0 1.0 0.0364540611292313 0.0 1.0 1:2.69 2:0.09 3:4.03 4:10.49 5:-0.81 6:0.22 7:-0.45 8:-0.36 
-0.0 -0.0 -0.0 0.0 0.0 0.0 0.2332752207583933 1:2.9 2:-0.12 3:4.4 4:10.31 5:-0.85 6:-0.05 7:0.21 8:-0.21 
-0.0 -0.0 -0.0 0.8475374516716593 0.0 0.46894037740038624 0.0 1:2.8 2:0.45 3:3.67 4:10.48 5:0.46 6:0.12 7:-0.39 8:-0.24 
-0.0 -0.0 -1.0 0.0 0.0 0.0 0.0 1:3.51 2:0.15 3:4.55 4:11.0 5:-0.36 6:-0.34 7:-0.17 8:-0.18 
-0.0 -0.0 -0.285349801399886 0.0 0.0 0.0 0.0 1:3.95 2:0.0 3:5.95 4:10.04 5:-1.16 6:-0.38 7:-0.05 8:-0.12 
-0.0 -0.0 -1.0 0.0 0.0 0.0 0.0 1:3.64 2:0.3 3:4.06 4:10.32 5:-0.16 6:-0.11 7:-0.2 8:-0.01 
-0.0 -0.0 -1.0 0.0 0.0 0.0 0.0 1:3.6 2:-0.72 3:4.96 4:11.43 5:-0.6 6:0.28 7:-0.21 8:-0.23 
-1.0 -0.0 -1.0 0.5990022143376766 0.0 0.0 0.38066797371114197 1:3.76 2:-0.21 3:6.35 4:10.78 5:-1.06 6:0.28 7:-0.31 8:-0.2 
-0.0 -0.0 -1.0 0.0 0.0 0.503987317497374 0.0 1:3.64 2:0.03 3:5.26 4:11.69 5:-0.58 6:-0.42 7:-0.14 8:-0.19 
-0.0 -0.0 -1.0 0.0 0.0 0.0 0.0 1:4.13 2:-0.12 3:5.28 4:10.17 5:-0.96 6:-0.25 7:-0.33 8:-0.29 
-1.0 -1.0 -0.8138645454581757 1.0 1.0 0.4811278682108483 0.3351713741815989 1:3.82 2:-0.33 3:6.66 4:8.97 5:-1.02 6:-0.13 7:-0.13 8:0.0 
-0.0 -0.0 -0.0 0.0 0.3327553207998466 0.0 0.0 1:3.44 2:-0.45 3:4.35 4:10.33 5:-0.65 6:-0.42 7:-0.07 8:-0.1 
-0.3193677256259872 -0.0 -0.0 0.5146681420045368 0.0 1.0 1.0 1:3.02 2:-0.48 3:4.13 4:11.38 5:-0.76 6:0.64 7:-0.31 8:-0.14 
-0.0 -0.0 -1.0 0.0 0.0 0.0 0.0 1:3.68 2:-0.06 3:4.79 4:10.63 5:-0.51 6:0.08 7:-0.23 8:-0.39 
-1.0 -0.2551159752177286 -1.0 0.0 0.001709246650106874 0.0 0.0 1:4.4 2:-0.57 3:6.44 4:10.62 5:-0.96 6:-0.39 7:-0.26 8:-0.25 
-0.0 -0.0 -1.0 0.0 0.0 0.0 0.0 1:3.73 2:-0.18 3:4.8 4:10.9 5:-0.43 6:-0.25 7:-0.07 8:-0.02 
-1.0 -1.0 -0.0 0.0 0.0 0.0 0.0 1:3.32 2:-0.48 3:4.09 4:10.14 5:-0.08 6:-0.23 7:-0.04 8:0.04 
-0.0 -1.0 -0.0 0.0 1.0 0.0 0.0 1:2.77 2:0.09 3:3.49 4:10.19 5:0.26 6:-0.31 7:-0.17 8:-0.15 
-0.0 -0.0 -1.0 0.0 0.0 0.0 0.0 1:3.85 2:0.27 3:4.39 4:11.37 5:-0.13 6:-0.36 7:0.01 8:-0.13 
-0.0 -0.0 -1.0 0.0 0.0 0.0 0.0 1:3.57 2:0.24 3:3.8 4:10.55 5:0.12 6:-0.19 7:-0.25 8:-0.31 
-0.0 -0.0 -0.0 0.0 0.40756826740078 0.0 1.0 1:2.73 2:0.39 3:3.61 4:10.43 5:-0.01 6:-0.22 7:-0.24 8:-0.14 
-1.0 -0.0 -0.0 0.0 0.0 0.0 0.0 1:3.34 2:-0.45 3:3.88 4:11.01 5:-0.29 6:-0.07 7:-0.14 8:-0.06 
-0.0 -0.0 -1.0 0.0 0.0 0.0 0.0 1:3.76 2:0.33 3:5.02 4:10.11 5:-0.7 6:-0.1 7:-0.45 8:-0.17 
-0.0 -0.0 -1.0 0.0 0.0 0.0 0.0 1:3.56 2:-0.42 3:4.39 4:10.91 5:-0.2 6:-0.08 7:-0.05 8:-0.05 
-0.0 -0.0 -0.0 0.0 0.0 0.0 1.0 1:3.2 2:0.24 3:4.37 4:11.03 5:-0.78 6:0.56 7:-0.3 8:-0.22 
-0.0 -0.0 -1.0 0.0 0.0 0.0 0.0 1:3.35 2:-0.54 3:4.05 4:11.65 5:0.09 6:-0.33 7:-0.03 8:-0.22 
-0.0 -0.0 -0.0 0.0 0.0 0.0 0.8495409696450535 1:3.06 2:0.42 3:4.26 4:10.59 5:-0.34 6:-0.19 7:-0.3 8:-0.24 
-1.0 -0.0 -1.0 0.0 0.0 0.0 0.0 1:3.72 2:-0.66 3:5.0 4:11.02 5:-0.82 6:-0.21 7:-0.12 8:0.0 
-0.0 -0.0 -1.0 0.0 0.0 0.0 0.0 1:3.7 2:0.18 3:3.81 4:11.16 5:0.29 6:-0.27 7:-0.13 8:-0.1 
-0.0 -0.0 -1.0 0.0 0.0 0.0 0.0 1:3.98 2:0.12 3:6.27 4:10.32 5:-1.15 6:-0.44 7:-0.04 8:-0.16 
-0.0 -0.0 -1.0 0.0 0.0 0.0 0.0 1:3.33 2:-0.21 3:3.68 4:10.97 5:0.49 6:0.07 7:-0.14 8:-0.08 
-0.0 -0.0 -1.0 0.0 0.0 0.0 0.0 1:4.09 2:-0.06 3:5.43 4:10.4 5:-0.78 6:-0.42 7:-0.02 8:-0.14 
-0.0 -0.0 -1.0 0.0 0.0 0.0 0.0 1:3.4 2:-0.12 3:3.97 4:11.06 5:0.31 6:-0.13 7:-0.13 8:-0.14 
-0.0 -0.0 -1.0 0.0 0.0 0.0 0.0 1:3.98 2:0.06 3:6.03 4:10.19 5:-1.16 6:-0.41 7:-0.05 8:-0.14 
-1.0 -1.0 -0.0 0.0 1.0 0.0 0.0 1:2.86 2:-0.9 3:3.65 4:11.1 5:0.01 6:-0.31 7:-0.06 8:-0.09 
-0.0 -0.0 -0.0 0.0 1.0 0.0 0.0 1:3.32 2:-0.21 3:4.4 4:10.43 5:-0.72 6:-0.27 7:-0.2 8:-0.08 
-0.0 -0.0 -1.0 0.0 0.0 0.0 0.0 1:4.04 2:0.06 3:4.96 4:10.48 5:-0.62 6:-0.08 7:-0.29 8:-0.27 
-0.0 -0.0 -1.0 0.0 0.0 0.0 0.0 1:3.71 2:0.0 3:3.93 4:11.37 5:0.22 6:-0.23 7:-0.01 8:-0.09 
-0.0 -0.0 -1.0 0.0 0.0 0.0 0.0 1:3.91 2:-0.15 3:5.06 4:10.54 5:-0.67 6:-0.3 7:-0.11 8:0.02 
-0.0 -1.0 -0.0 1.0 0.0 1.0 1.0 1:2.63 2:-0.27 3:3.74 4:10.99 5:-0.89 6:0.32 7:-0.46 8:-0.39 
-0.0 -0.0 -1.0 0.0 0.0 0.0 0.0 1:3.33 2:-0.21 3:3.68 4:10.98 5:0.48 6:0.07 7:-0.14 8:-0.09 
-0.0 -0.0 -1.0 0.0 0.0 0.0 0.0 1:3.57 2:0.27 3:3.8 4:10.56 5:0.12 6:-0.19 7:-0.24 8:-0.31 
-0.0 -0.0 -1.0 0.0 0.0 0.0 0.0 1:3.7 2:0.24 3:3.81 4:11.16 5:0.27 6:-0.26 7:-0.14 8:-0.1 
-0.0 -0.0 -1.0 0.0 0.0 0.0 0.0 1:3.61 2:0.03 3:4.11 4:10.73 5:-0.19 6:-0.1 7:-0.33 8:-0.05 
-1.0 -0.0 -0.0 1.0 0.0 1.0 1.0 1:3.02 2:-0.48 3:4.13 4:11.38 5:-0.76 6:0.64 7:-0.31 8:-0.14 
-0.0 -1.0 -0.0 0.0 0.0 0.0 1.0 1:3.06 2:-0.75 3:3.74 4:10.9 5:-0.75 6:-0.15 7:0.12 8:-0.12 
-0.0 -0.0 -1.0 0.0 0.0 0.0 0.0 1:3.91 2:-0.15 3:5.06 4:10.54 5:-0.67 6:-0.3 7:-0.11 8:0.02 
-0.07115852241421254 -0.0 -0.0 0.0 0.0 0.4555146632766108 0.0 1:3.15 2:-0.48 3:3.33 4:11.27 5:0.42 6:-0.23 7:-0.06 8:-0.19 
-1.0 -0.0 -0.7513892167791327 0.0 0.0 0.0 0.0 1:3.68 2:-0.69 3:5.0 4:10.99 5:-0.81 6:-0.22 7:-0.1 8:0.03 
-0.0 -0.0 -1.0 0.0 0.18436518694829254 0.0 0.0 1:3.85 2:0.27 3:6.36 4:10.5 5:-1.11 6:-0.25 7:-0.16 8:-0.17 
-0.0 -0.0 -0.0 -0.0 0.0 0.0 1.0 1:2.45 2:-0.39 3:3.93 4:9.76 5:-1.06 6:0.94 7:-0.6 8:-0.74 
-0.0 -0.0 -0.0 -1.0 0.0 0.0 0.889557108610376 1:2.81 2:-0.51 3:4.04 4:10.22 5:-0.54 6:0.97 7:-0.77 8:-0.84 
-0.0 -0.0 -0.0 -0.0 0.0 0.0 0.602347247550098 1:2.43 2:-0.33 3:3.96 4:9.85 5:-0.95 6:0.99 7:-0.87 8:-0.89 
-1.0 -0.845288338153821 -1.0 -1.0 0.026721754710170985 0.0 0.0 1:2.77 2:-0.78 3:3.98 4:10.2 5:-0.44 6:0.97 7:-0.57 8:-0.62 
-0.0 -1.0 -0.0 -1.0 0.3000936772309878 0.0 1.0 1:2.52 2:-0.51 3:4.25 4:9.96 5:-1.1 6:0.95 7:-0.51 8:-0.66 
-0.0 -0.0 -0.002716138727854575 -0.0 0.0 0.0 0.0 1:2.85 2:-0.51 3:4.6 4:9.75 5:-0.67 6:0.96 7:-0.53 8:-0.68 
-1.0 -1.0 -0.0 -0.0 1.0 0.27245951955995346 1.0 1:2.19 2:-1.23 3:2.4 4:10.34 5:0.01 6:0.95 7:-0.8 8:-0.69 
-0.5596517952295704 -0.0 -0.0 -0.0 0.0 0.0 0.0 1:3.16 2:-0.69 3:5.82 4:9.24 5:-1.35 6:0.99 7:-0.74 8:-0.75 
-0.0 -0.0 -0.0 -0.0 0.4843134781696563 0.0 0.0 1:2.64 2:-0.18 3:4.58 4:9.14 5:-1.14 6:0.98 7:-0.63 8:-0.71 
-0.06222130760826205 -1.0 -0.6340270452453796 -0.7134587320891084 0.13749624048623735 1.0 1.0 1:2.2 2:-1.23 3:2.43 4:10.37 5:0.02 6:0.95 7:-0.8 8:-0.7 
-0.0 -0.0 -0.0 -0.0 0.0 1.0 1.0 1:2.13 2:-0.54 3:3.14 4:10.14 5:-0.7 6:0.96 7:-0.89 8:-0.88 
-0.0 -1.0 -0.0 -0.0 0.0 0.0 0.0 1:2.6 2:-0.69 3:3.69 4:9.78 5:-0.37 6:0.98 7:-0.62 8:-0.57 
-0.0 -0.17919464110545846 -0.0 -0.0 0.0 0.0 0.0 1:2.72 2:-0.96 3:4.73 4:9.52 5:-1.12 6:0.96 7:-0.61 8:-0.63 
-0.0 -0.0 -1.0 -1.0 0.0 0.13258604001618704 0.0 1:2.93 2:-0.48 3:5.1 4:10.01 5:-0.9 6:0.97 7:-0.78 8:-0.85 
-0.0 -0.0 -1.0 -1.0 0.0 0.5076201540817576 1.0 1:2.77 2:-0.48 3:3.65 4:10.28 5:-0.36 6:0.98 7:-0.77 8:-0.83 
-0.0 -1.0 -0.0 -0.0 0.32086667322269596 0.0 0.0 1:2.78 2:-1.02 3:5.01 4:9.41 5:-1.25 6:0.95 7:-0.6 8:-0.64 
-1.0 -0.8492552521772232 -1.0 -1.0 0.6661561081805928 0.7489767409531469 0.5717171777887828 1:4.27 2:-0.99 3:7.01 4:8.55 5:-0.88 6:0.98 7:-0.69 8:-0.75 
-0.9721550496722599 -0.0 -0.0 -0.2703964067104028 0.0 0.0 0.0 1:2.83 2:-0.84 3:4.57 4:10.04 5:-0.72 6:0.97 7:-0.58 8:-0.64 
-1.0 -0.0 -0.3004065007134929 -0.5233764599456622 0.1136702771222178 0.0 0.0 1:3.07 2:-0.51 3:6.05 4:8.93 5:-1.44 6:0.99 7:-0.67 8:-0.7 
-1.0 -0.0 -0.0 -0.0 -0.0 0.0 0.0 1:2.83 2:-1.23 3:4.35 4:9.87 5:-0.77 6:-0.96 7:-0.88 8:0.91 
-0.0 -0.0 -0.0 -0.0 -0.23057573493926387 0.0 0.0 1:2.68 2:-0.06 3:4.92 4:8.87 5:-1.21 6:-0.99 7:-0.93 8:0.94 
-0.0 -1.0 -0.0 -0.0 -0.0 0.0 0.0 1:2.36 2:-0.57 3:3.21 4:10.18 5:-0.49 6:-0.85 7:-0.81 8:0.91 
-0.0 -1.0 -0.0 -0.3111339307021303 -0.0 0.0 1.0 1:2.21 2:-0.57 3:3.11 4:10.22 5:-0.53 6:-0.95 7:-0.71 8:0.77 
-1.0 -1.0 -0.40789021869163555 -0.8650745518379114 -1.0 1.0 1.0 1:2.4 2:-0.9 3:2.81 4:10.37 5:0.02 6:-0.98 7:-0.89 8:0.89 
-1.0 -0.0 -0.03260504149933851 -0.10077941922611472 -0.3165282342308112 0.0 0.0 1:2.97 2:-1.02 3:5.08 4:9.14 5:-1.25 6:-0.97 7:-0.93 8:0.91 
-0.5385960917197848 -0.0 -0.0 -0.0 -0.0 0.0 0.0 1:2.52 2:-0.96 3:3.25 4:10.27 5:-0.36 6:-0.97 7:-0.88 8:0.85 
-1.0 -1.0 -0.0 -0.0 -0.0 0.12430351495904868 0.5872638969594497 1:2.7 2:-0.9 3:5.2 4:9.68 5:-1.34 6:-0.98 7:-0.91 8:0.89 
-0.0 -0.0 -0.0 -0.0 -0.3340292918062429 0.0 0.35894781701524736 1:2.04 2:0.06 3:3.12 4:9.64 5:-1.07 6:-0.95 7:-0.91 8:0.92 
-0.0 -1.0 -0.0 -0.0 -0.0 0.0 0.0 1:2.63 2:-1.17 3:4.86 4:9.59 5:-1.28 6:-0.99 7:-0.87 8:0.84 
-1.0 -0.02488674715232326 -1.0 -1.0 -0.26969416926386286 0.10750425681983374 0.020487869674070774 1:2.55 2:-0.93 3:2.84 4:10.41 5:0.11 6:-0.98 7:-0.95 8:0.95 
-1.0 -1.0 -1.0 -1.0 -0.8984907788823782 0.546937585613842 0.0 1:2.97 2:-0.69 3:5.24 4:9.36 5:-1.28 6:-0.95 7:-0.9 8:0.93 
-0.0 -0.0 -0.04747209350927387 -0.7401498495876218 -0.0 0.0 0.0 1:2.51 2:0.06 3:4.49 4:10.0 5:-1.02 6:-0.97 7:-0.79 8:0.85 
-0.0 -0.7296458643266379 -0.0 -0.0 -0.0 0.0 0.0 1:2.47 2:-0.63 3:4.22 4:9.64 5:-0.95 6:-0.9 7:-0.73 8:0.78 
-0.0 -1.0 -0.0 -0.0 -0.0 0.0 0.0 1:2.65 2:-0.96 3:5.01 4:9.62 5:-1.32 6:-0.98 7:-0.91 8:0.88 
-0.0 -1.0 -0.0 -0.0 -0.0 0.0 0.0 1:2.51 2:-0.69 3:4.43 4:9.77 5:-0.93 6:-0.9 7:-0.73 8:0.8 
-0.0 -1.0 -0.0 -0.0 -0.0 0.0 0.0 1:2.51 2:-0.69 3:4.43 4:9.77 5:-0.93 6:-0.9 7:-0.73 8:0.8 
-0.0 -1.0 -0.0 -0.0 -0.0 0.0 0.0 1:2.36 2:-0.57 3:3.21 4:10.18 5:-0.49 6:-0.85 7:-0.81 8:0.91 
-0.1927698952902729 -0.0 -0.0 -0.0 -0.0 0.0 0.0 1:2.83 2:-1.26 3:4.44 4:9.77 5:-0.86 6:-0.96 7:-0.88 8:0.91 
-0.0 -1.0 -0.0 -0.0 -0.0 0.0 0.0 1:2.32 2:-0.81 3:3.32 4:9.73 5:-0.71 6:-0.97 7:-0.75 8:0.75 
-0.0 -1.0 -0.0 -0.0 -0.0 0.0 0.0 1:2.29 2:-0.87 3:3.24 4:9.69 5:-0.69 6:-0.97 7:-0.74 8:0.74 
-0.0 -0.0 -0.0 -0.0 -0.0 0.0 0.048598772334201255 1:2.29 2:-0.18 3:3.42 4:9.32 5:-0.97 6:-0.96 7:-0.73 8:0.74 
-0.0 -1.0 -0.0 -0.0 -0.0 0.0 0.02554908416799658 1:2.36 2:-0.63 3:3.13 4:10.25 5:-0.41 6:-0.85 7:-0.81 8:0.91 
-0.25580283570934437 -0.0 -0.0 -0.0 -0.0 0.0 0.0 1:2.89 2:-0.6 3:5.05 4:9.18 5:-1.31 6:-0.95 7:-0.86 8:0.91 
-0.0 -1.0 -0.0 -0.0 -0.0 0.0 0.0 1:2.67 2:-0.93 3:5.15 4:9.64 5:-1.33 6:-0.98 7:-0.91 8:0.89 
-1.0 -0.0 -1.0 -1.0 -0.0 0.0 0.8152819425368869 1:2.64 2:0.03 3:4.71 4:9.98 5:-1.14 6:-0.98 7:-0.83 8:0.87 
-0.0 -1.0 -0.0 -0.0 -0.0 0.0 0.0 1:2.36 2:-0.57 3:3.21 4:10.18 5:-0.49 6:-0.85 7:-0.81 8:0.91 
-0.0 -0.6310019536240556 -0.0 -0.0 -0.0 0.0 0.0 1:2.48 2:-0.99 3:3.79 4:9.99 5:-0.62 6:-0.87 7:-0.85 8:0.92 
-0.0 -0.0 -0.0 -0.0 -0.0 0.5626961001547202 0.8860189405012261 1:2.16 2:0.3 3:3.49 4:9.98 5:-0.94 6:-0.96 7:-0.9 8:0.94 
-0.0 -0.0 -0.0 -0.145760879561859 -0.0 -0.0 1.0 1:2.37 2:0.03 3:3.3 4:12.19 5:-0.65 6:0.36 7:-0.55 8:-0.78 
-0.0 -0.0 -0.0 -0.0 -0.0 -0.0 1.0 1:2.42 2:0.27 3:3.78 4:12.35 5:-1.0 6:0.39 7:-0.76 8:-0.68 
-0.0 -0.20644737761893342 -1.0 -1.0 -0.0 -0.0 1.0 1:2.26 2:0.33 3:2.84 4:11.71 5:-0.47 6:0.28 7:-0.49 8:-0.74 
-0.0 -0.0 -0.0 -0.0 -0.0 -0.0 1.0 1:2.11 2:-0.03 3:3.46 4:12.38 5:-0.96 6:0.39 7:-0.63 8:-0.59 
-0.13503734417979849 -0.10971217826943562 -0.6337305464588977 -0.15805605833434402 -0.12642640046128462 -0.1650872177602323 0.7899168959055458 1:2.77 2:0.0 3:5.1 4:13.06 5:-1.34 6:0.4 7:-0.43 8:-0.7 
-0.0 -0.0 -0.0 -0.0 -0.0 -0.0 0.14820797222372606 1:2.04 2:0.18 3:2.54 4:11.93 5:-0.12 6:0.58 7:-0.76 8:-0.76 
-0.0 -0.0 -0.0 -0.0 -0.0 -0.0 1.0 1:2.07 2:0.39 3:2.68 4:11.82 5:-0.22 6:0.53 7:-0.72 8:-0.75 
-0.0 -0.0 -0.0 -0.0 -0.4384731460415017 -0.0 0.0 1:1.71 2:0.36 3:2.02 4:11.83 5:0.28 6:0.58 7:-0.48 8:-0.76 
-0.0 -0.0 -0.0 -0.0 -0.0 -0.0 1.0 1:2.15 2:0.33 3:3.52 4:12.23 5:-1.07 6:0.45 7:-0.15 8:-0.3 
-0.0 -0.0 -0.0 -0.0 -0.0 -0.0 1.0 1:1.95 2:-0.27 3:2.97 4:12.35 5:-0.99 6:0.63 7:-0.45 8:-0.64 
-0.0 -0.0 -0.0 -0.0 -0.0 -0.16725015320780734 1.0 1:2.02 2:1.02 3:3.67 4:11.93 5:-1.28 6:0.38 7:-0.38 8:-0.66 
-0.0 -0.0 -0.0 -0.0 -0.0 -0.0 1.0 1:2.3 2:0.75 3:3.62 4:12.14 5:-0.87 6:0.58 7:-0.42 8:-0.7 
-0.0 -0.0 -0.0 -0.0 -0.0 -0.0 1.0 1:1.96 2:0.9 3:3.03 4:11.74 5:-1.03 6:0.64 7:-0.44 8:-0.7 
-0.9465244484952084 -0.6103080143814497 -1.0 -1.0 -0.6764749412915586 -0.5132817740464858 0.0 1:3.01 2:0.39 3:5.25 4:13.34 5:-0.9 6:0.63 7:-0.33 8:-0.3 
-0.0 -0.0 -0.0 -0.5956030610943522 -0.0 -0.0 0.8167077154925975 1:2.46 2:-0.42 3:4.29 4:12.81 5:-1.1 6:0.39 7:-0.34 8:-0.7 
-0.0 -0.0 -0.0 -0.0 -0.0 -0.0 1.0 1:1.85 2:0.18 3:2.76 4:11.99 5:-0.87 6:0.62 7:-0.45 8:-0.65 
-0.0 -0.0 -0.0 -0.0 -0.0 -0.0 1.0 1:1.99 2:-0.12 3:3.13 4:11.91 5:-0.93 6:0.55 7:-0.36 8:-0.71 
-0.555568830391237 -0.2624270476834224 -0.3656060016243643 -0.0 -0.16964631924860588 -0.3167539314658475 0.0 1:2.13 2:-0.48 3:1.6 4:13.38 5:0.15 6:0.46 7:-0.51 8:-0.62 
-0.4678903830296805 -1.0 -0.0 -0.6834090756741645 -1.0 -0.24471048694717507 1.0 1:1.84 2:-0.42 3:3.0 4:11.85 5:-0.93 6:0.42 7:-0.1 8:-0.62 
-0.0 -0.0 -0.0 -0.0 -0.0 -0.0 1.0 1:1.93 2:-0.27 3:3.1 4:12.12 5:-0.88 6:0.63 7:-0.42 8:-0.69 
-0.0 -0.0 -0.0 -0.0 -0.0 -0.0 1.0 1:1.67 2:-0.39 3:2.41 4:12.12 5:-0.8 6:0.62 7:-0.47 8:-0.76 
-0.0 -0.0 -0.0 -0.0 -0.25062164756809446 -0.0 1.0 1:1.94 2:-0.18 3:3.13 4:11.88 5:-0.98 6:0.48 7:-0.34 8:-0.71 
-1.0 -1.0 -0.9514339947640197 -1.0 -1.0 -0.9343578941198967 1.0 1:2.0 2:0.21 3:2.38 4:11.39 5:-0.16 6:0.39 7:-0.53 8:-0.81 
-0.18435657117738075 -0.0 -0.11946142503416454 -1.0 -0.0 -0.0 1.0 1:2.22 2:0.24 3:3.96 4:12.12 5:-1.17 6:0.46 7:-0.16 8:-0.41 
-0.0 -0.0 -0.0 -0.0 -0.0 -0.0 -1.0 1:2.31 2:-0.57 3:3.55 4:12.05 5:-1.11 6:0.46 7:-0.66 8:-0.82 
-0.0 -0.0 -0.0 -0.0 -0.0 -0.0 -0.7327731707688614 1:1.92 2:1.14 3:3.1 4:11.12 5:-0.85 6:0.58 7:-0.66 8:-0.72 
-0.0 -0.0 -0.0 -0.0 -0.0 -0.0 -1.0 1:1.96 2:0.6 3:3.14 4:11.41 5:-0.96 6:0.34 7:-0.61 8:-0.52 
-0.0 -0.0 -0.0 -0.6494665141662431 -0.0 -0.0 -0.0 1:2.12 2:0.57 3:3.02 4:10.46 5:-0.83 6:0.25 7:-0.2 8:-0.71 
-0.0 -1.0 -0.0 -0.0 -0.0 -0.0025918227950708127 -0.0 1:1.98 2:-0.87 3:3.7 4:10.73 5:-1.37 6:-0.02 7:-0.8 8:-0.34 
-0.0 -0.0 -0.0 -0.0 -0.0 -0.0 -1.0 1:2.14 2:0.36 3:3.61 4:11.62 5:-1.19 6:0.51 7:-0.76 8:-0.72 
-0.0 -0.0 -0.0 -0.0 -0.0 -0.0 -1.0 1:1.91 2:0.06 3:3.05 4:11.51 5:-1.03 6:0.54 7:-0.68 8:-0.79 
-0.0 -0.0 -0.0 -0.0 -1.0 -0.0 -0.0 1:1.98 2:-0.24 3:3.46 4:10.73 5:-1.08 6:0.35 7:-0.56 8:-0.74 
-1.0 -0.1121182443675637 -1.0 -1.0 -0.0 -0.0 -0.0 1:2.68 2:-0.09 3:4.0 4:10.89 5:-0.85 6:0.14 7:-0.41 8:-0.4 
-0.0 -0.0 -0.0 -1.0 -0.0 -0.0 -0.0 1:2.3 2:-0.27 3:3.15 4:11.17 5:-0.78 6:0.17 7:-0.48 8:-0.65 
-0.0 -0.0 -0.0 -0.0 -0.0 -0.0 -1.0 1:1.94 2:-0.15 3:2.66 4:11.14 5:-0.72 6:0.44 7:-0.63 8:-0.65 
-0.0 -0.0 -0.0 -0.0 -0.0 -0.0 -1.0 1:1.92 2:0.48 3:3.32 4:11.51 5:-1.2 6:0.48 7:-0.58 8:-0.61 
-0.0 -1.0 -0.0 -0.0 -0.1282503894638951 -0.0 -0.0 1:1.7 2:-0.69 3:2.26 4:10.75 5:-0.8 6:0.12 7:-0.8 8:-0.37 
-0.0 -0.0 -0.0 -0.0 -0.0 -0.0 -1.0 1:1.95 2:0.15 3:3.29 4:11.57 5:-1.16 6:0.65 7:-0.7 8:-0.8 
-0.0 -1.0 -0.0 -0.6016380929294441 -0.0 -1.0 -0.0 1:2.26 2:0.09 3:3.9 4:10.44 5:-1.25 6:-0.08 7:-0.77 8:-0.23 
-1.0 -1.0 -1.0 -1.0 -1.0 -1.0 -0.5460491723257924 1:3.84 2:-0.33 3:2.76 4:9.4 5:0.77 6:-0.32 7:0.07 8:-0.74 
-0.0 -0.0 -0.0 -0.0 -0.0 -0.0 -1.0 1:1.85 2:-0.27 3:2.73 4:11.4 5:-0.92 6:0.17 7:-0.64 8:-0.48 
-0.0 -0.0 -0.0 -0.0 -0.0 -0.0 -1.0 1:2.15 2:-0.72 3:3.32 4:12.04 5:-0.94 6:0.37 7:-0.67 8:-0.69 
-0.0 -0.0 -0.0 -0.0 -0.0 -0.0 -1.0 1:2.07 2:0.0 3:3.43 4:11.66 5:-1.17 6:0.37 7:-0.66 8:-0.55 
-0.0 -0.0 -0.0 -0.0 -0.8079733966928164 -0.0 -0.0 1:2.01 2:-0.24 3:3.53 4:10.63 5:-1.17 6:0.28 7:-0.56 8:-0.7 
-0.0 -0.0 -0.0 -0.8919022056665685 -0.0 -0.0 -0.0 1:2.59 2:0.36 3:4.49 4:11.19 5:-1.18 6:0.23 7:-0.62 8:-0.66 
-0.0 -0.0 -0.0 -0.0 -0.0 -0.0 -1.0 1:2.05 2:-0.06 3:3.3 4:11.63 5:-1.13 6:0.36 7:-0.68 8:-0.59 
-0.0 -0.0 -0.0 -0.0 -0.0 -0.0 -1.0 1:2.14 2:0.36 3:3.84 4:11.7 5:-1.34 6:0.56 7:-0.76 8:-0.77 
-1.0 -1.0 -0.0 -1.0 -0.0 -1.0 -0.0 1:2.26 2:-0.54 3:3.91 4:10.66 5:-1.25 6:-0.06 7:-0.78 8:-0.25 
-0.0 -0.5440660840727998 -0.0 -0.0 -0.0 -1.0 -0.0 1:2.1 2:0.27 3:3.47 4:10.41 5:-1.05 6:0.03 7:-0.81 8:-0.23 
-0.0 -1.0 -0.0 -0.0 -0.0 -0.0 -0.0 1:2.23 2:-0.27 3:3.7 4:10.59 5:-1.11 6:0.04 7:-0.88 8:-0.32 
-0.0 -0.0 -0.0 -0.0 -0.8328350852482213 -0.0 -0.0 1:2.3 2:-0.03 3:3.54 4:10.82 5:-0.92 6:0.38 7:-0.8 8:-0.47 
-0.0 -0.29900237215386705 -0.0 -0.0 -0.0 -0.0 -0.0 1:2.17 2:-0.39 3:3.68 4:10.52 5:-1.32 6:-0.02 7:-0.63 8:-0.52 
-0.5492195586224041 -1.0 -0.38816399495153886 -0.0 -1.0 -0.7395565003940082 -0.0 1:1.7 2:-0.69 3:2.16 4:10.79 5:-0.77 6:0.12 7:-0.81 8:-0.36 
-0.7126738701591486 -0.0 -0.32952820330096017 -0.0 -0.0 -0.0 -1.0 1:2.58 2:-0.09 3:4.27 4:11.75 5:-1.12 6:0.36 7:-0.66 8:-0.51 
-0.0 -0.0 -1.0 -1.0 -0.0 -0.0 -0.0 1:2.62 2:0.03 3:4.45 4:11.21 5:-1.08 6:0.25 7:-0.59 8:-0.75 
-0.0 -0.0 -0.0 -1.0 -0.0 -0.0 -0.0 1:2.52 2:-0.18 3:4.07 4:11.68 5:-1.05 6:0.35 7:-0.65 8:-0.46 
-0.0 -0.0 -0.0 -1.0 -0.0 -0.0 -0.47601024052721586 1:2.52 2:-0.18 3:4.07 4:11.68 5:-1.05 6:0.35 7:-0.65 8:-0.46 
-0.0 -1.0 -0.0 -0.0 -0.0 -0.0 -0.0 1:2.0 2:-0.9 3:3.28 4:10.74 5:-1.21 6:-0.03 7:-0.72 8:-0.37 
-0.0 -1.0 -0.0 -0.0 -0.0 -0.0 -0.0 1:2.12 2:-0.3 3:3.36 4:10.58 5:-0.87 6:0.04 7:-0.85 8:-0.31 
-0.0 -0.0 -0.0 -0.0 -0.0 -0.0 -1.0 1:1.98 2:-0.75 3:3.5 4:11.8 5:-1.27 6:0.47 7:-0.61 8:-0.58 
-0.0 -0.0 -1.0 -1.0 -0.7586918670136341 -0.0 -0.0 1:2.62 2:0.03 3:4.45 4:11.21 5:-1.07 6:0.26 7:-0.59 8:-0.75 
-0.0 -0.0 -0.0 -0.0 -0.0 -0.0 -1.0 1:1.92 2:1.02 3:3.17 4:11.32 5:-1.05 6:0.5 7:-0.67 8:-0.71 
-0.45552770402789355 -0.0 -1.0 -1.0 -0.5757618513450068 -0.0 -0.0 1:2.68 2:0.3 3:3.53 4:10.62 5:-0.82 6:0.25 7:-0.49 8:-0.42 
-0.0 -0.0 -0.07330941568465292 -1.0 -0.0 -0.0 -0.0 1:2.47 2:0.33 3:3.89 4:10.7 5:-1.0 6:0.02 7:-0.61 8:-0.48 
-0.0 -0.0 -0.0 -0.0 -0.0 -0.0 -1.0 1:1.92 2:1.2 3:3.25 4:11.21 5:-0.96 6:0.58 7:-0.64 8:-0.57 
-0.5693326941330146 -1.0 -0.0 -0.23235102787632197 -0.9601089441856829 -0.0 -0.0 1:2.15 2:-0.93 3:3.66 4:10.73 5:-1.18 6:0.0 7:-0.66 8:-0.47 
-0.0 -0.0 -0.0 -0.0 -0.0 -0.0 -1.0 1:2.17 2:-0.72 3:3.48 4:12.02 5:-1.0 6:0.35 7:-0.66 8:-0.69 
-0.0 -0.0 -0.0 -0.0 -0.0 -0.0 -1.0 1:2.31 2:-0.6 3:3.55 4:12.04 5:-1.1 6:0.45 7:-0.66 8:-0.82 
-0.0 -0.0 -0.0 -0.0 -1.0 -0.0 -0.0 1:2.17 2:-0.24 3:3.36 4:10.61 5:-0.81 6:0.27 7:-0.83 8:-0.43 
-0.0 -0.0 -0.009602012780955193 -0.0 -0.0 -0.0 -0.0 1:2.06 2:-0.18 3:3.01 4:10.75 5:-0.62 6:0.08 7:-0.89 8:-0.31 
